{"ip":0,"fr":60,"v":"5.1.20","assets":[],"layers":[{"ty":4,"nm":"LLHSVWhtqu97t8EaxCSvj","ip":0,"st":0,"ind":1,"hix":1,"ks":{"o":{"a":0,"k":100},"or":{"a":0,"k":[0,0,0]},"a":{"a":0,"k":[79.8675308227539,71.636474609375,0]},"p":{"s":true,"x":{"a":0,"k":166.28357783512473},"y":{"a":1,"k":[{"t":0,"s":[68.95799999999997],"e":[344.579440037181],"i":{"x":[0.68],"y":[0.53]},"o":{"x":[0.55],"y":[0.085]}},{"t":120,"s":[344.579440037181],"e":[68.95799999999997],"i":{"x":[0.355],"y":[1]},"o":{"x":[0.215],"y":[0.61]}},{"t":240}]}},"rx":{"a":0,"k":0},"ry":{"a":0,"k":0},"rz":{"a":0,"k":57.29577951308232},"s":{"a":1,"k":[{"t":0,"s":[52,52],"e":[52,52],"i":{"x":[1,1],"y":[1,1]},"o":{"x":[0,0],"y":[0,0]}},{"t":240}]}},"shapes":[{"ty":"gr","nm":"LLHSVWhtqu97t8EaxCSvj shape group","it":[{"ty":"sh","ks":{"a":1,"k":[{"t":0,"s":[{"c":true,"v":[[220,366.27710787235236],[134.8952719216259,305.104728078374],[81.63473419541413,219.99999999999997],[146.46195633601513,146.4619563360151],[220,46.2947303858464],[349.9553464538103,90.04465354618974],[406.4877473850451,220],[344.16382744691384,344.16382744691384]],"i":[[42.96063764611205,8.018423076239742],[24.957624459375126,26.384722379947732],[-2.529808652610839,34.69757125289203],[-21.1652878135082,26.57113405396825],[-41.49469433603204,11.504151231507016],[-34.76920609960217,-32.38601143769186],[1.1189264918395452,-49.096044651379515],[37.87912869995097,-29.71160021313966]],"o":[[-35.701997854144565,-6.663628361843962],[-23.907005222935965,-25.27402785348744],[2.470240307236068,-33.88056206687099],[26.82843451636157,-33.68071042895939],[45.788624397320746,-12.69461718367296],[35.93486153425431,33.471769051222296],[-1.096887893532653,48.12903920962799],[-34.38639526216491,26.971972795186446]]}],"e":[{"c":true,"v":[[220,396.6170255477419],[112.85274509791421,327.14725490208576],[25.873428020504832,219.99999999999997],[98.31052654553136,98.31052654553135],[220,30.268287020735443],[324.1429826022973,115.8570173977027],[320.92838771641254,220],[297.69218309204865,297.69218309204865]],"i":[[43.04462366509324,-6.859372084498432],[32.73066797235347,29.77847474728196],[3.0329258986312198,47.72620061310428],[-35.09520596494455,34.30068061878909],[-48.1671054790049,-3.7424367179998654],[-21.937494226887395,-41.239520934735324],[5.1973461055633265,-35.72898769694274],[13.942130792504145,-24.397671716391017]],"o":[[-43.698544277556294,6.963577544151349],[-35.37321556778019,-32.1826736748863],[-3.112267860477104,-48.97472778279317],[34.55079842672862,-33.76859800005599],[46.57100752523996,3.618424790600592],[16.956340234049094,31.875625393966303],[-4.045066069578979,27.80767585953234],[-21.626278776982133,37.84434803406384]]}],"i":{"x":[0.675],"y":[0.19]},"o":{"x":[0.55],"y":[0.055]}},{"t":120,"s":[{"c":true,"v":[[220,396.6170255477419],[112.85274509791421,327.14725490208576],[25.873428020504832,219.99999999999997],[98.31052654553136,98.31052654553135],[220,30.268287020735443],[324.1429826022973,115.8570173977027],[320.92838771641254,220],[297.69218309204865,297.69218309204865]],"i":[[43.04462366509324,-6.859372084498432],[32.73066797235347,29.77847474728196],[3.0329258986312198,47.72620061310428],[-35.09520596494455,34.30068061878909],[-48.1671054790049,-3.7424367179998654],[-21.937494226887395,-41.239520934735324],[5.1973461055633265,-35.72898769694274],[13.942130792504145,-24.397671716391017]],"o":[[-43.698544277556294,6.963577544151349],[-35.37321556778019,-32.1826736748863],[-3.112267860477104,-48.97472778279317],[34.55079842672862,-33.76859800005599],[46.57100752523996,3.618424790600592],[16.956340234049094,31.875625393966303],[-4.045066069578979,27.80767585953234],[-21.626278776982133,37.84434803406384]]}],"e":[{"c":true,"v":[[220,394.17063344634425],[132.58108148543909,307.41891851456086],[114.76035972368781,219.99999999999997],[99.1222833920367,99.12228339203665],[220,58.46633110094167],[353.41264966411387,86.58735033588611],[357.9289385834304,220],[297.18181451577857,297.1818145157786]],"i":[[42.86894275987328,-2.666171755564278],[22.07072381393874,36.52684423094007],[4.903136726010075,30.524314672706566],[-23.05542807250805,35.38807121358846],[-44.13894400088893,2.1757753403380775],[-30.679633205224036,-35.93005037967107],[11.933002997753647,-44.6912155179574],[21.13008405717096,-26.68214634875818]],"o":[[-42.594710728149636,2.6491162918560462],[-15.988227430452028,-26.460368848988082],[-6.698501760396894,-41.701300003603734],[24.123522867606113,-37.02750356561075],[47.188956022871594,-2.3261219581690398],[30.03719461576992,35.177666844622806],[-8.780226258766277,32.88350669993292],[-26.66550283699098,33.67203117766854]]}],"i":{"x":[0.355],"y":[1]},"o":{"x":[0],"y":[0.605]}},{"t":180,"s":[{"c":true,"v":[[220,394.17063344634425],[132.58108148543909,307.41891851456086],[114.76035972368781,219.99999999999997],[99.1222833920367,99.12228339203665],[220,58.46633110094167],[353.41264966411387,86.58735033588611],[357.9289385834304,220],[297.18181451577857,297.1818145157786]],"i":[[42.86894275987328,-2.666171755564278],[22.07072381393874,36.52684423094007],[4.903136726010075,30.524314672706566],[-23.05542807250805,35.38807121358846],[-44.13894400088893,2.1757753403380775],[-30.679633205224036,-35.93005037967107],[11.933002997753647,-44.6912155179574],[21.13008405717096,-26.68214634875818]],"o":[[-42.594710728149636,2.6491162918560462],[-15.988227430452028,-26.460368848988082],[-6.698501760396894,-41.701300003603734],[24.123522867606113,-37.02750356561075],[47.188956022871594,-2.3261219581690398],[30.03719461576992,35.177666844622806],[-8.780226258766277,32.88350669993292],[-26.66550283699098,33.67203117766854]]}],"e":[{"c":true,"v":[[220,366.27710787235236],[134.8952719216259,305.104728078374],[81.63473419541413,219.99999999999997],[146.46195633601513,146.4619563360151],[220,46.2947303858464],[349.9553464538103,90.04465354618974],[406.4877473850451,220],[344.16382744691384,344.16382744691384]],"i":[[42.96063764611205,8.018423076239742],[24.957624459375126,26.384722379947732],[-2.529808652610839,34.69757125289203],[-21.1652878135082,26.57113405396825],[-41.49469433603204,11.504151231507016],[-34.76920609960217,-32.38601143769186],[1.1189264918395452,-49.096044651379515],[37.87912869995097,-29.71160021313966]],"o":[[-35.701997854144565,-6.663628361843962],[-23.907005222935965,-25.27402785348744],[2.470240307236068,-33.88056206687099],[26.82843451636157,-33.68071042895939],[45.788624397320746,-12.69461718367296],[35.93486153425431,33.471769051222296],[-1.096887893532653,48.12903920962799],[-34.38639526216491,26.971972795186446]]}],"i":{"x":[0.675],"y":[0.19]},"o":{"x":[0.55],"y":[0.055]}},{"t":240}]}},{"ty":"st","o":{"a":0,"k":100},"c":{"a":0,"k":[0,0,0,1]},"lc":1,"lj":1,"ml":4,"w":{"a":0,"k":3},"d":[]},{"ty":"fl","o":{"a":0,"k":0},"r":1,"c":{"a":0,"k":[1,1,1,0]}},{"ty":"tr","o":{"a":0,"k":23},"a":{"a":0,"k":[0,0]},"s":{"a":0,"k":[100,100]},"p":{"a":0,"k":[85.105,70.437]},"r":{"a":0,"k":0}}]}],"op":240}],"op":240,"w":280,"h":561}